digraph Tree {
node [shape=box] ;
0 [label="X[2] <= 4.35\nentropy = 1.571\nsamples = 10\nvalue = [3, 4, 3]"] ;
1 [label="entropy = 0.971\nsamples = 5\nvalue = [3, 2, 0]"] ;
0 -> 1 [labeldistance=2.5, labelangle=45, headlabel="True"] ;
2 [label="entropy = 0.971\nsamples = 5\nvalue = [0, 2, 3]"] ;
0 -> 2 [labeldistance=2.5, labelangle=-45, headlabel="False"] ;
}
